input:8
numLayers:4
layer:8
layer:10
layer:6
output:4
0.5202091284182121
0.12752158127399094
-0.059843618471492666
0.8432424080253277
-0.22812445050028018
-0.9117784058241691
-0.8279443549611907
-0.6008935066329698
0.6480783400675618
-0.8176530547237225
-0.13954602952906303
0.3319336584812471
0.016980436856117942
0.12715647224655746
0.33201024017229663
-0.5314007728541247
0.6655705742399408
-0.569612312563476
-0.05241269393701775
-0.15122270440111052
0.8937638943665291
0.5891335403259855
-0.650603694823409
-0.1963068706382699
-0.5935437405932075
-0.2190145455228324
0.0981590062911536
0.33063622792217096
-0.2938757242536574
0.5986316115428755
-0.10065039520943098
-0.19225804289139503
0.31136176301167784
0.3046764708827432
0.49531539615470666
-0.36715030038003527
-0.010205398741610416
-0.15959784206216243
0.9053435994242671
-0.2739252581389008
-0.6351319952501879
0.2594068799781445
-0.11520220922238422
-0.06676927965548807
0.01888230154421411
-0.003500232815846105
0.07525516864318871
0.5165394717297568
0.34034471181157355
-0.5934751334288316
0.19221075603601745
0.24155332022599396
-0.16077808845186803
-0.08623251894191475
0.12250326489410102
-0.2744129877887914
0.19324707240236882
-0.012828910939329474
-0.65974862158743
-0.34760954379564435
-0.27148602885031237
0.4109249047308936
-0.6183915015813162
0.20096132614609463
-0.13266250248087885
0.41923435086730754
0.31356567097606636
0.4340666493166162
-0.12844884203977192
0.47440767450441057
0.1504022559695508
-0.15593142992193865
0.4561705033609993
-0.7218338518584766
0.45916105540496666
-0.51376309737785
0.00448910236103206
-0.6761390890684621
0.07832619425931109
0.38841852459936854
-0.341146975136687
-0.17338891487451558
0.3757827456983781
-0.22736149490870672
-0.5908973650540723
-0.07918469193424382
-0.2878286024843848
0.352566817075437
-0.49308834446203686
0.04644764250170874
0.28186197569804705
-0.5299216702834324
0.19672261089410892
0.18137623471894415
-0.35210166623738504
0.1690871108588814
-0.7636280874046734
0.07111397502112748
0.3085358670887046
0.031905013075209654
0.36276707431723487
0.07274071686816863
0.2908447722196916
-0.7759719222575858
0.4251371229361789
-0.3215561052845798
0.3549020372147139
-0.24570602619595794
0.15499233509270705
0.722916354551213
0.23327885003899496
0.34945343401140405
-0.19310750281287525
0.6829153458638513
-0.21241074460827525
0.3466405578722749
0.7357334249495516
0.05229752792200537
-0.5034642326060438
0.4025261669764175
-0.7222222326693363
0.3878646080738445
0.38857138461071816
-0.7138898109808806
0.30150828157320464
0.3551393359337439
-0.5957988044337068
0.5570130241690053
-0.22023135589974918
-0.2612279854331234
0.6500882089992757
-0.6419675195658282
-0.49425568606395354
0.009013602928917286
0.8087775403584696
-0.08842456084773065
-0.152801703832248
0.8180054353201865
-0.19874730112034245
-0.32225605859675965
0.4050824559239342
-0.3773601966537353
0.27699213225933417
0.3597210699990946
0.39662524173439007
0.07287424505076967
0.3806918275186624
-0.21379378584736508
-0.14761432360561244
-0.7406244848879404
0.3082916416139644
-0.29549771658141644
-0.14110174247709817
-0.027874449803229173
0.07395909803976963
0.17210779411469224
-0.1146882250254414
-0.5357931607306227
-0.7043141376544042
-0.5055728387310598
0.30995466439290176
-0.22076636785746961
-0.027381165397803442
-0.6174168844356693
